//Numpy array shape [1024]
//Min -0.171875000000
//Max 0.234375000000
//Number of zeros 346

#ifndef B14_H_
#define B14_H_

#ifndef __SYNTHESIS__
bias14_t b14[1024];
#else
bias14_t b14[1024] = {0.093750, 0.062500, 0.000000, -0.015625, 0.062500, 0.015625, 0.000000, 0.000000, 0.187500, 0.093750, -0.015625, 0.000000, 0.109375, -0.046875, 0.000000, -0.062500, 0.140625, 0.062500, -0.062500, -0.015625, 0.109375, 0.140625, 0.031250, -0.093750, 0.000000, 0.000000, 0.000000, 0.000000, 0.156250, 0.109375, -0.015625, 0.046875, 0.156250, 0.000000, -0.031250, 0.015625, 0.078125, 0.000000, 0.000000, -0.015625, 0.000000, 0.000000, -0.046875, -0.078125, 0.015625, -0.015625, 0.156250, 0.031250, 0.000000, 0.125000, 0.000000, 0.046875, 0.000000, 0.000000, 0.078125, 0.125000, 0.093750, 0.234375, -0.093750, 0.078125, 0.000000, 0.125000, -0.015625, -0.046875, -0.062500, -0.015625, 0.015625, -0.015625, 0.000000, 0.156250, 0.046875, 0.000000, -0.015625, 0.000000, -0.015625, 0.046875, 0.000000, 0.031250, 0.078125, 0.078125, 0.000000, -0.015625, -0.015625, 0.078125, 0.046875, 0.062500, 0.000000, 0.093750, -0.046875, 0.000000, -0.015625, 0.140625, 0.078125, -0.156250, -0.015625, 0.000000, 0.140625, -0.046875, -0.015625, 0.078125, 0.000000, -0.015625, -0.015625, 0.000000, 0.078125, 0.000000, -0.031250, 0.000000, 0.000000, -0.046875, -0.015625, 0.000000, 0.093750, 0.078125, 0.000000, 0.093750, 0.000000, 0.000000, -0.015625, 0.140625, 0.031250, 0.187500, -0.046875, 0.140625, -0.109375, 0.062500, 0.109375, 0.093750, 0.046875, 0.000000, 0.109375, 0.000000, 0.000000, -0.015625, 0.000000, -0.062500, 0.078125, 0.000000, 0.000000, -0.015625, 0.000000, -0.078125, 0.000000, 0.078125, 0.031250, -0.015625, 0.062500, 0.125000, 0.000000, -0.031250, -0.031250, 0.000000, 0.046875, 0.046875, 0.015625, 0.015625, 0.015625, 0.000000, 0.000000, 0.000000, 0.062500, -0.015625, 0.015625, 0.078125, 0.140625, 0.000000, 0.000000, 0.062500, 0.000000, 0.000000, 0.000000, 0.015625, 0.046875, 0.046875, -0.015625, 0.078125, -0.031250, -0.046875, 0.000000, 0.187500, -0.093750, 0.000000, 0.046875, -0.062500, -0.015625, 0.000000, 0.000000, 0.078125, 0.125000, 0.000000, -0.031250, 0.000000, 0.046875, 0.046875, 0.000000, 0.031250, 0.000000, -0.015625, 0.031250, 0.078125, 0.046875, 0.031250, 0.000000, 0.046875, 0.000000, 0.000000, 0.000000, -0.031250, 0.125000, 0.015625, -0.031250, -0.078125, 0.109375, 0.000000, -0.046875, 0.000000, 0.000000, 0.140625, 0.000000, -0.046875, 0.062500, 0.062500, 0.031250, -0.015625, 0.062500, 0.000000, -0.046875, 0.000000, -0.015625, 0.000000, 0.046875, -0.015625, 0.078125, 0.125000, -0.093750, 0.046875, -0.015625, 0.000000, 0.000000, -0.046875, 0.093750, 0.000000, 0.015625, 0.000000, 0.000000, 0.046875, 0.015625, 0.000000, 0.000000, 0.031250, 0.000000, -0.046875, 0.000000, -0.015625, 0.109375, 0.031250, 0.046875, -0.015625, -0.062500, 0.109375, 0.000000, 0.000000, 0.031250, 0.031250, 0.078125, 0.000000, -0.046875, 0.000000, -0.031250, -0.015625, 0.015625, 0.109375, -0.015625, 0.031250, -0.015625, -0.078125, 0.000000, -0.015625, 0.000000, 0.046875, 0.046875, 0.000000, -0.031250, 0.000000, -0.015625, 0.000000, 0.000000, 0.000000, 0.015625, -0.015625, -0.046875, 0.062500, 0.000000, 0.000000, 0.046875, 0.031250, 0.031250, -0.062500, 0.000000, 0.000000, 0.078125, 0.046875, 0.000000, -0.015625, 0.078125, 0.000000, 0.000000, 0.140625, 0.046875, -0.031250, 0.000000, 0.000000, 0.078125, 0.000000, -0.015625, -0.125000, 0.109375, 0.000000, 0.000000, 0.000000, 0.062500, -0.015625, 0.078125, 0.000000, -0.015625, 0.093750, 0.062500, 0.046875, 0.000000, -0.078125, 0.000000, 0.031250, -0.078125, -0.015625, -0.015625, 0.000000, -0.031250, 0.000000, 0.000000, 0.015625, 0.015625, 0.000000, 0.000000, 0.031250, 0.046875, 0.000000, 0.000000, 0.000000, 0.000000, 0.031250, -0.031250, -0.015625, 0.062500, 0.046875, -0.125000, 0.000000, 0.078125, -0.031250, -0.078125, -0.015625, 0.109375, 0.046875, -0.046875, 0.000000, 0.000000, 0.000000, 0.000000, 0.015625, 0.031250, -0.015625, 0.109375, -0.015625, -0.078125, -0.046875, -0.015625, -0.031250, 0.062500, -0.015625, 0.000000, 0.046875, -0.015625, 0.140625, 0.031250, -0.078125, -0.031250, 0.062500, 0.156250, 0.046875, 0.062500, 0.000000, -0.078125, 0.031250, 0.031250, 0.000000, -0.046875, -0.046875, 0.000000, -0.031250, 0.062500, 0.000000, -0.015625, -0.031250, -0.109375, -0.046875, 0.000000, 0.000000, -0.015625, -0.046875, -0.031250, 0.000000, 0.015625, -0.078125, 0.000000, -0.062500, 0.000000, 0.000000, 0.000000, 0.000000, -0.109375, 0.031250, -0.015625, 0.000000, 0.000000, 0.000000, 0.062500, 0.015625, 0.015625, -0.031250, 0.000000, 0.000000, -0.109375, 0.000000, -0.046875, 0.000000, 0.000000, -0.031250, -0.046875, -0.109375, 0.000000, 0.062500, 0.046875, -0.046875, -0.031250, 0.031250, -0.015625, 0.015625, 0.000000, -0.046875, 0.046875, 0.078125, 0.000000, 0.000000, 0.000000, 0.000000, 0.031250, 0.062500, -0.062500, 0.000000, 0.000000, 0.046875, 0.046875, -0.046875, 0.031250, 0.000000, -0.062500, -0.046875, 0.000000, 0.015625, 0.000000, 0.000000, 0.000000, -0.015625, 0.000000, -0.078125, -0.078125, -0.078125, -0.015625, -0.046875, 0.015625, 0.000000, -0.015625, -0.046875, -0.031250, 0.000000, -0.046875, -0.015625, 0.078125, -0.031250, 0.015625, -0.093750, 0.000000, -0.015625, 0.000000, 0.015625, 0.000000, 0.000000, -0.046875, 0.000000, 0.000000, 0.000000, 0.000000, 0.000000, -0.015625, 0.000000, 0.031250, -0.031250, 0.015625, -0.015625, -0.031250, 0.093750, -0.046875, -0.015625, 0.000000, -0.015625, 0.046875, -0.046875, 0.000000, -0.015625, -0.046875, 0.062500, -0.015625, -0.015625, 0.000000, -0.093750, 0.000000, 0.015625, -0.078125, -0.015625, 0.000000, -0.093750, 0.000000, 0.000000, 0.000000, -0.046875, -0.046875, -0.046875, 0.062500, 0.000000, -0.046875, -0.109375, 0.000000, 0.000000, 0.000000, -0.062500, 0.000000, 0.015625, -0.046875, -0.031250, 0.000000, 0.000000, 0.000000, 0.000000, -0.015625, -0.031250, -0.109375, 0.000000, 0.015625, 0.000000, -0.031250, 0.000000, -0.031250, 0.000000, 0.000000, -0.078125, 0.015625, -0.015625, -0.062500, -0.015625, 0.000000, -0.109375, -0.093750, -0.015625, -0.093750, 0.000000, -0.031250, 0.015625, 0.000000, 0.031250, 0.000000, -0.015625, 0.000000, -0.078125, -0.015625, 0.000000, -0.078125, 0.046875, 0.015625, -0.046875, 0.015625, -0.015625, 0.000000, -0.046875, 0.046875, -0.093750, -0.015625, -0.093750, 0.000000, -0.015625, 0.000000, 0.078125, 0.000000, -0.015625, -0.015625, -0.015625, -0.078125, -0.015625, -0.062500, 0.031250, -0.015625, 0.000000, -0.062500, -0.031250, -0.046875, 0.015625, -0.046875, 0.000000, 0.062500, 0.000000, -0.046875, -0.015625, 0.015625, 0.015625, -0.015625, -0.031250, -0.046875, 0.031250, -0.046875, -0.062500, 0.031250, 0.000000, -0.031250, 0.000000, -0.015625, -0.015625, 0.000000, 0.031250, 0.015625, 0.046875, 0.000000, 0.000000, -0.046875, -0.015625, 0.000000, 0.062500, 0.046875, 0.078125, 0.000000, -0.031250, 0.015625, -0.093750, 0.015625, 0.046875, -0.062500, -0.015625, 0.000000, 0.000000, 0.000000, 0.000000, 0.000000, -0.109375, -0.093750, -0.078125, -0.015625, 0.046875, -0.078125, -0.140625, -0.109375, -0.109375, 0.000000, 0.046875, 0.000000, 0.000000, 0.000000, -0.031250, -0.031250, 0.046875, -0.093750, 0.000000, 0.000000, 0.015625, -0.031250, 0.031250, 0.000000, -0.093750, 0.031250, -0.015625, -0.046875, 0.000000, -0.031250, -0.015625, 0.015625, 0.000000, 0.000000, 0.000000, 0.031250, -0.031250, -0.093750, -0.046875, 0.046875, -0.062500, -0.015625, 0.031250, -0.156250, 0.000000, -0.046875, 0.046875, -0.062500, -0.031250, 0.000000, 0.000000, -0.109375, 0.000000, 0.000000, -0.046875, -0.078125, -0.031250, -0.109375, 0.000000, 0.031250, 0.093750, 0.000000, -0.062500, 0.000000, 0.000000, 0.031250, -0.125000, -0.046875, 0.062500, 0.000000, 0.000000, -0.109375, 0.000000, 0.000000, 0.000000, 0.000000, -0.062500, -0.093750, -0.031250, -0.031250, 0.000000, 0.000000, -0.062500, 0.000000, 0.000000, -0.093750, -0.078125, -0.078125, 0.000000, -0.015625, -0.093750, 0.062500, -0.015625, -0.109375, 0.000000, -0.078125, -0.109375, -0.046875, 0.000000, 0.062500, -0.015625, -0.046875, -0.046875, 0.000000, -0.015625, -0.062500, -0.109375, -0.093750, 0.000000, 0.000000, -0.109375, -0.078125, -0.093750, 0.140625, 0.000000, -0.046875, -0.078125, 0.000000, -0.031250, 0.000000, -0.109375, 0.000000, 0.000000, 0.000000, -0.031250, 0.000000, -0.093750, -0.031250, 0.000000, 0.000000, 0.000000, -0.078125, 0.000000, -0.015625, -0.015625, 0.031250, 0.000000, -0.062500, -0.062500, 0.000000, 0.000000, -0.078125, 0.000000, 0.000000, 0.015625, 0.078125, -0.062500, -0.078125, 0.062500, -0.093750, -0.109375, 0.000000, -0.046875, 0.000000, 0.000000, 0.031250, -0.109375, 0.000000, 0.000000, 0.000000, 0.015625, -0.046875, -0.125000, 0.000000, -0.062500, 0.000000, 0.078125, 0.000000, -0.078125, 0.015625, 0.000000, -0.031250, -0.062500, 0.000000, 0.000000, 0.000000, 0.000000, 0.000000, 0.015625, 0.000000, 0.031250, -0.031250, -0.078125, 0.000000, -0.031250, -0.062500, -0.062500, -0.109375, -0.093750, -0.031250, 0.000000, -0.046875, 0.015625, 0.000000, 0.000000, -0.031250, -0.015625, 0.000000, 0.000000, 0.015625, -0.015625, 0.062500, 0.046875, -0.078125, -0.078125, 0.000000, -0.093750, 0.000000, -0.046875, 0.000000, -0.031250, -0.046875, -0.031250, 0.000000, -0.031250, -0.046875, 0.000000, 0.000000, -0.015625, 0.000000, 0.000000, -0.015625, 0.000000, 0.015625, 0.000000, -0.015625, -0.046875, -0.015625, -0.046875, -0.062500, -0.078125, -0.046875, 0.000000, -0.015625, 0.000000, 0.031250, 0.015625, -0.109375, 0.062500, 0.000000, -0.031250, -0.046875, -0.109375, 0.000000, 0.046875, -0.078125, 0.000000, 0.000000, -0.015625, -0.078125, -0.093750, -0.109375, -0.046875, -0.125000, 0.000000, 0.000000, 0.000000, -0.062500, -0.046875, 0.000000, -0.125000, 0.000000, 0.046875, 0.000000, -0.046875, -0.046875, -0.015625, 0.000000, -0.031250, -0.015625, -0.093750, 0.000000, 0.000000, -0.031250, 0.000000, -0.046875, 0.000000, -0.062500, -0.031250, -0.078125, 0.031250, 0.000000, 0.031250, 0.031250, -0.062500, -0.046875, 0.000000, 0.000000, 0.031250, -0.093750, 0.000000, 0.000000, -0.078125, 0.000000, 0.015625, -0.015625, -0.062500, -0.171875, 0.000000, -0.078125, 0.046875, 0.015625, -0.078125, 0.000000, -0.062500, -0.031250, 0.000000, 0.031250, -0.078125, -0.062500, -0.109375, -0.031250, 0.000000, -0.015625, 0.000000, -0.062500, 0.000000, -0.031250, 0.062500, -0.015625, 0.000000, 0.062500, 0.000000, -0.125000, 0.062500, -0.031250, 0.000000, 0.000000, 0.000000, -0.078125, 0.031250, -0.062500, 0.031250, -0.078125, 0.046875, 0.000000, 0.000000, 0.015625, 0.000000, -0.062500, -0.031250, 0.000000, -0.093750, -0.156250, -0.031250, -0.062500, -0.078125, 0.015625, -0.062500, 0.015625, 0.031250, 0.000000, -0.078125, 0.000000, -0.046875, -0.078125, -0.078125, 0.000000, -0.031250, -0.046875, 0.000000, 0.015625, 0.000000, 0.000000, 0.000000};
#endif

#endif
